<?xml version="1.0"?>
<opencv_storage>
<stage4>
  <maxWeakCount>15</maxWeakCount>
  <stageThreshold>-1.9546388387680054e+00</stageThreshold>
  <weakClassifiers>
    <_>
      <internalNodes>
        0 -1 492468 1.3927508890628815e-01</internalNodes>
      <leafValues>
        -7.5109809637069702e-01 8.4615385532379150e-01</leafValues></_>
    <_>
      <internalNodes>
        0 -1 633938 -2.2801058366894722e-04</internalNodes>
      <leafValues>
        2.8630733489990234e-02 -5.8962607383728027e-01</leafValues></_>
    <_>
      <internalNodes>
        0 -1 441659 4.9286096327705309e-05</internalNodes>
      <leafValues>
        -5.3897017240524292e-01 1.9925440847873688e-01</leafValues></_>
    <_>
      <internalNodes>
        0 -1 593118 -1.1775634484365582e-03</internalNodes>
      <leafValues>
        5.0156354904174805e-01 -2.0663343369960785e-01</leafValues></_>
    <_>
      <internalNodes>
        0 -1 414594 4.4580966234207153e-02</internalNodes>
      <leafValues>
        -2.7678468823432922e-01 4.5353701710700989e-01</leafValues></_>
    <_>
      <internalNodes>
        0 -1 565326 3.8975372444838285e-04</internalNodes>
      <leafValues>
        -4.3952664732933044e-01 3.1891855597496033e-01</leafValues></_>
    <_>
      <internalNodes>
        0 -1 165239 3.1488570384681225e-03</internalNodes>
      <leafValues>
        -1.5722440183162689e-01 7.2196877002716064e-01</leafValues></_>
    <_>
      <internalNodes>
        0 -1 607968 -1.9905090448446572e-04</internalNodes>
      <leafValues>
        2.4389611184597015e-01 -4.2271173000335693e-01</leafValues></_>
    <_>
      <internalNodes>
        0 -1 718962 -7.8871045261621475e-03</internalNodes>
      <leafValues>
        6.6343975067138672e-01 -1.4997380971908569e-01</leafValues></_>
    <_>
      <internalNodes>
        0 -1 498036 1.6163829714059830e-02</internalNodes>
      <leafValues>
        1.5190544724464417e-01 -6.6160482168197632e-01</leafValues></_>
    <_>
      <internalNodes>
        0 -1 678599 1.1391405016183853e-02</internalNodes>
      <leafValues>
        -1.8068444728851318e-01 5.3779655694961548e-01</leafValues></_>
    <_>
      <internalNodes>
        0 -1 533493 -4.6288846060633659e-03</internalNodes>
      <leafValues>
        -7.5222957134246826e-01 1.2661451101303101e-01</leafValues></_>
    <_>
      <internalNodes>
        0 -1 500604 6.5636155195534229e-03</internalNodes>
      <leafValues>
        -1.8106392025947571e-01 6.4874368906021118e-01</leafValues></_>
    <_>
      <internalNodes>
        0 -1 427181 -4.5495507947634906e-05</internalNodes>
      <leafValues>
        -2.8449773788452148e-01 3.1608495116233826e-01</leafValues></_>
    <_>
      <internalNodes>
        0 -1 262781 -7.0080271689221263e-04</internalNodes>
      <leafValues>
        5.4146152734756470e-01 -1.6929022967815399e-01</leafValues></_></weakClassifiers></stage4>
</opencv_storage>
